digraph Tree {
node [shape=box] ;
0 [label="Size <= 735.0\ngini = 0.48\nsamples = 10\nvalue = [6, 4]"] ;
1 [label="gini = 0.0\nsamples = 6\nvalue = [6, 0]"] ;
0 -> 1 [labeldistance=2.5, labelangle=45, headlabel="True"] ;
2 [label="gini = 0.0\nsamples = 4\nvalue = [0, 4]"] ;
0 -> 2 [labeldistance=2.5, labelangle=-45, headlabel="False"] ;
}